Language model created by QuickLM on Mon Apr 19 06:05:37 EDT 2021
Copyright (c) 1996-2010 Carnegie Mellon University and Alexander I. Rudnicky

The model is in standard ARPA format, designed by Doug Paul while he was at MITRE.

The code that was used to produce this language model is available in Open Source.
Please visit http://www.speech.cs.cmu.edu/tools/ for more information

The (fixed) discount mass is 0.5. The backoffs are computed using the ratio method.
This model based on a corpus of 79 sentences and 36 words

\data\
ngram 1=36
ngram 2=129
ngram 3=171

\1-grams:
-0.9855 </s> -0.3010
-0.9855 <s> -0.2207
-2.8831 BAJE -0.2536
-2.8831 BANGLISH -0.2536
-1.8039 BHONDHO -0.2801
-2.8831 BYE -0.3005
-2.1049 CHROME -0.2054
-1.5029 CLOSE -0.2348
-2.5821 DATE -0.2524
-2.1049 EDGE -0.2054
-2.1049 EXCEL -0.2054
-2.1049 EXPLORER -0.2054
-2.1049 INTERNET -0.2976
-2.5821 IS -0.2999
-2.1049 ITUNES -0.2054
-2.5821 KI -0.2536
-2.8831 KOITA -0.3005
-1.3268 KORO -0.2536
-2.8831 KOTO -0.3005
-1.8039 KULO -0.2536
-2.1049 MEDIA -0.2976
-2.1049 NOTEPAD -0.2054
-1.5029 OPEN -0.2348
-2.1049 PAINT -0.2054
-2.1049 PLAYER -0.2054
-2.1049 POWERPOINT -0.2054
-2.1049 SNIPPING -0.2976
-2.5821 TA -0.2999
-2.8831 TARIK -0.2536
-2.5821 THE -0.2988
-2.5821 TIME -0.2524
-2.1049 TOOL -0.2054
-2.5821 WHAT -0.2999
-2.1049 WINDOWS -0.2976
-2.1049 WORD -0.2054
-2.1049 WORDPAD -0.2054

\2-grams:
-2.1987 <s> BYE 0.0000
-1.5966 <s> CHROME -0.1249
-1.1195 <s> CLOSE -0.1761
-2.1987 <s> DATE -0.1761
-1.5966 <s> EDGE -0.1249
-1.5966 <s> EXCEL -0.1249
-1.5966 <s> INTERNET 0.0000
-1.5966 <s> ITUNES -0.1249
-2.1987 <s> KOITA 0.0000
-2.1987 <s> KOTO 0.0000
-1.5966 <s> NOTEPAD -0.1249
-1.1195 <s> OPEN -0.1761
-1.5966 <s> PAINT -0.1249
-1.5966 <s> POWERPOINT -0.1249
-1.5966 <s> SNIPPING 0.0000
-2.1987 <s> TIME -0.1761
-1.8976 <s> WHAT 0.0000
-1.5966 <s> WINDOWS 0.0000
-1.5966 <s> WORD -0.1249
-1.5966 <s> WORDPAD -0.1249
-0.3010 BAJE </s> -0.3010
-0.3010 BANGLISH </s> -0.3010
-0.3010 BHONDHO KORO 0.0000
-0.3010 BYE BANGLISH 0.0000
-0.7782 CHROME </s> -0.3010
-1.0792 CHROME BHONDHO 0.0000
-1.0792 CHROME CLOSE -0.1761
-1.0792 CHROME KULO 0.0000
-1.0792 CHROME OPEN -0.1761
-1.6812 CLOSE CHROME -0.2218
-1.6812 CLOSE EDGE -0.2218
-1.6812 CLOSE EXCEL -0.2218
-1.6812 CLOSE INTERNET 0.0000
-1.6812 CLOSE ITUNES -0.2218
-0.6021 CLOSE KORO 0.0000
-1.6812 CLOSE NOTEPAD -0.2218
-1.6812 CLOSE PAINT -0.2218
-1.6812 CLOSE POWERPOINT -0.2218
-1.6812 CLOSE SNIPPING 0.0000
-1.6812 CLOSE WINDOWS 0.0000
-1.6812 CLOSE WORD -0.2218
-1.6812 CLOSE WORDPAD -0.2218
-0.6021 DATE </s> -0.3010
-0.6021 DATE TA 0.0000
-0.7782 EDGE </s> -0.3010
-1.0792 EDGE BHONDHO 0.0000
-1.0792 EDGE CLOSE -0.1761
-1.0792 EDGE KULO 0.0000
-1.0792 EDGE OPEN -0.1761
-0.7782 EXCEL </s> -0.3010
-1.0792 EXCEL BHONDHO 0.0000
-1.0792 EXCEL CLOSE -0.1761
-1.0792 EXCEL KULO 0.0000
-1.0792 EXCEL OPEN -0.1761
-0.7782 EXPLORER </s> -0.3010
-1.0792 EXPLORER BHONDHO 0.0000
-1.0792 EXPLORER CLOSE -0.1761
-1.0792 EXPLORER KULO 0.0000
-1.0792 EXPLORER OPEN -0.1761
-0.3010 INTERNET EXPLORER 0.0000
-0.3010 IS THE 0.0000
-0.7782 ITUNES </s> -0.3010
-1.0792 ITUNES BHONDHO 0.0000
-1.0792 ITUNES CLOSE -0.1761
-1.0792 ITUNES KULO 0.0000
-1.0792 ITUNES OPEN -0.1761
-0.3010 KI </s> -0.3010
-0.3010 KOITA BAJE 0.0000
-0.3010 KORO </s> -0.3010
-0.3010 KOTO TARIK 0.0000
-0.3010 KULO </s> -0.3010
-0.3010 MEDIA PLAYER 0.0000
-0.7782 NOTEPAD </s> -0.3010
-1.0792 NOTEPAD BHONDHO 0.0000
-1.0792 NOTEPAD CLOSE -0.1761
-1.0792 NOTEPAD KULO 0.0000
-1.0792 NOTEPAD OPEN -0.1761
-1.6812 OPEN CHROME -0.2218
-1.6812 OPEN EDGE -0.2218
-1.6812 OPEN EXCEL -0.2218
-1.6812 OPEN INTERNET 0.0000
-1.6812 OPEN ITUNES -0.2218
-0.6021 OPEN KORO 0.0000
-1.6812 OPEN NOTEPAD -0.2218
-1.6812 OPEN PAINT -0.2218
-1.6812 OPEN POWERPOINT -0.2218
-1.6812 OPEN SNIPPING 0.0000
-1.6812 OPEN WINDOWS 0.0000
-1.6812 OPEN WORD -0.2218
-1.6812 OPEN WORDPAD -0.2218
-0.7782 PAINT </s> -0.3010
-1.0792 PAINT BHONDHO 0.0000
-1.0792 PAINT CLOSE -0.1761
-1.0792 PAINT KULO 0.0000
-1.0792 PAINT OPEN -0.1761
-0.7782 PLAYER </s> -0.3010
-1.0792 PLAYER BHONDHO 0.0000
-1.0792 PLAYER CLOSE -0.1761
-1.0792 PLAYER KULO 0.0000
-1.0792 PLAYER OPEN -0.1761
-0.7782 POWERPOINT </s> -0.3010
-1.0792 POWERPOINT BHONDHO 0.0000
-1.0792 POWERPOINT CLOSE -0.1761
-1.0792 POWERPOINT KULO 0.0000
-1.0792 POWERPOINT OPEN -0.1761
-0.3010 SNIPPING TOOL 0.0000
-0.3010 TA KI 0.0000
-0.3010 TARIK </s> -0.3010
-0.6021 THE DATE -0.1761
-0.6021 THE TIME -0.1761
-0.6021 TIME </s> -0.3010
-0.6021 TIME TA 0.0000
-0.7782 TOOL </s> -0.3010
-1.0792 TOOL BHONDHO 0.0000
-1.0792 TOOL CLOSE -0.1761
-1.0792 TOOL KULO 0.0000
-1.0792 TOOL OPEN -0.1761
-0.3010 WHAT IS 0.0000
-0.3010 WINDOWS MEDIA 0.0000
-0.7782 WORD </s> -0.3010
-1.0792 WORD BHONDHO 0.0000
-1.0792 WORD CLOSE -0.1761
-1.0792 WORD KULO 0.0000
-1.0792 WORD OPEN -0.1761
-0.7782 WORDPAD </s> -0.3010
-1.0792 WORDPAD BHONDHO 0.0000
-1.0792 WORDPAD CLOSE -0.1761
-1.0792 WORDPAD KULO 0.0000
-1.0792 WORDPAD OPEN -0.1761

\3-grams:
-0.3010 <s> BYE BANGLISH
-0.9031 <s> CHROME BHONDHO
-0.9031 <s> CHROME CLOSE
-0.9031 <s> CHROME KULO
-0.9031 <s> CHROME OPEN
-1.3802 <s> CLOSE CHROME
-1.3802 <s> CLOSE EDGE
-1.3802 <s> CLOSE EXCEL
-1.3802 <s> CLOSE INTERNET
-1.3802 <s> CLOSE ITUNES
-1.3802 <s> CLOSE NOTEPAD
-1.3802 <s> CLOSE PAINT
-1.3802 <s> CLOSE POWERPOINT
-1.3802 <s> CLOSE SNIPPING
-1.3802 <s> CLOSE WINDOWS
-1.3802 <s> CLOSE WORD
-1.3802 <s> CLOSE WORDPAD
-0.3010 <s> DATE TA
-0.9031 <s> EDGE BHONDHO
-0.9031 <s> EDGE CLOSE
-0.9031 <s> EDGE KULO
-0.9031 <s> EDGE OPEN
-0.9031 <s> EXCEL BHONDHO
-0.9031 <s> EXCEL CLOSE
-0.9031 <s> EXCEL KULO
-0.9031 <s> EXCEL OPEN
-0.3010 <s> INTERNET EXPLORER
-0.9031 <s> ITUNES BHONDHO
-0.9031 <s> ITUNES CLOSE
-0.9031 <s> ITUNES KULO
-0.9031 <s> ITUNES OPEN
-0.3010 <s> KOITA BAJE
-0.3010 <s> KOTO TARIK
-0.9031 <s> NOTEPAD BHONDHO
-0.9031 <s> NOTEPAD CLOSE
-0.9031 <s> NOTEPAD KULO
-0.9031 <s> NOTEPAD OPEN
-1.3802 <s> OPEN CHROME
-1.3802 <s> OPEN EDGE
-1.3802 <s> OPEN EXCEL
-1.3802 <s> OPEN INTERNET
-1.3802 <s> OPEN ITUNES
-1.3802 <s> OPEN NOTEPAD
-1.3802 <s> OPEN PAINT
-1.3802 <s> OPEN POWERPOINT
-1.3802 <s> OPEN SNIPPING
-1.3802 <s> OPEN WINDOWS
-1.3802 <s> OPEN WORD
-1.3802 <s> OPEN WORDPAD
-0.9031 <s> PAINT BHONDHO
-0.9031 <s> PAINT CLOSE
-0.9031 <s> PAINT KULO
-0.9031 <s> PAINT OPEN
-0.9031 <s> POWERPOINT BHONDHO
-0.9031 <s> POWERPOINT CLOSE
-0.9031 <s> POWERPOINT KULO
-0.9031 <s> POWERPOINT OPEN
-0.3010 <s> SNIPPING TOOL
-0.3010 <s> TIME TA
-0.3010 <s> WHAT IS
-0.3010 <s> WINDOWS MEDIA
-0.9031 <s> WORD BHONDHO
-0.9031 <s> WORD CLOSE
-0.9031 <s> WORD KULO
-0.9031 <s> WORD OPEN
-0.9031 <s> WORDPAD BHONDHO
-0.9031 <s> WORDPAD CLOSE
-0.9031 <s> WORDPAD KULO
-0.9031 <s> WORDPAD OPEN
-0.3010 BHONDHO KORO </s>
-0.3010 BYE BANGLISH </s>
-0.3010 CHROME BHONDHO KORO
-0.3010 CHROME CLOSE KORO
-0.3010 CHROME KULO </s>
-0.3010 CHROME OPEN KORO
-0.3010 CLOSE CHROME </s>
-0.3010 CLOSE EDGE </s>
-0.3010 CLOSE EXCEL </s>
-0.3010 CLOSE INTERNET EXPLORER
-0.3010 CLOSE ITUNES </s>
-0.3010 CLOSE KORO </s>
-0.3010 CLOSE NOTEPAD </s>
-0.3010 CLOSE PAINT </s>
-0.3010 CLOSE POWERPOINT </s>
-0.3010 CLOSE SNIPPING TOOL
-0.3010 CLOSE WINDOWS MEDIA
-0.3010 CLOSE WORD </s>
-0.3010 CLOSE WORDPAD </s>
-0.3010 DATE TA KI
-0.3010 EDGE BHONDHO KORO
-0.3010 EDGE CLOSE KORO
-0.3010 EDGE KULO </s>
-0.3010 EDGE OPEN KORO
-0.3010 EXCEL BHONDHO KORO
-0.3010 EXCEL CLOSE KORO
-0.3010 EXCEL KULO </s>
-0.3010 EXCEL OPEN KORO
-0.3010 EXPLORER BHONDHO KORO
-0.3010 EXPLORER CLOSE KORO
-0.3010 EXPLORER KULO </s>
-0.3010 EXPLORER OPEN KORO
-0.7782 INTERNET EXPLORER </s>
-1.0792 INTERNET EXPLORER BHONDHO
-1.0792 INTERNET EXPLORER CLOSE
-1.0792 INTERNET EXPLORER KULO
-1.0792 INTERNET EXPLORER OPEN
-0.6021 IS THE DATE
-0.6021 IS THE TIME
-0.3010 ITUNES BHONDHO KORO
-0.3010 ITUNES CLOSE KORO
-0.3010 ITUNES KULO </s>
-0.3010 ITUNES OPEN KORO
-0.3010 KOITA BAJE </s>
-0.3010 KOTO TARIK </s>
-0.7782 MEDIA PLAYER </s>
-1.0792 MEDIA PLAYER BHONDHO
-1.0792 MEDIA PLAYER CLOSE
-1.0792 MEDIA PLAYER KULO
-1.0792 MEDIA PLAYER OPEN
-0.3010 NOTEPAD BHONDHO KORO
-0.3010 NOTEPAD CLOSE KORO
-0.3010 NOTEPAD KULO </s>
-0.3010 NOTEPAD OPEN KORO
-0.3010 OPEN CHROME </s>
-0.3010 OPEN EDGE </s>
-0.3010 OPEN EXCEL </s>
-0.3010 OPEN INTERNET EXPLORER
-0.3010 OPEN ITUNES </s>
-0.3010 OPEN KORO </s>
-0.3010 OPEN NOTEPAD </s>
-0.3010 OPEN PAINT </s>
-0.3010 OPEN POWERPOINT </s>
-0.3010 OPEN SNIPPING TOOL
-0.3010 OPEN WINDOWS MEDIA
-0.3010 OPEN WORD </s>
-0.3010 OPEN WORDPAD </s>
-0.3010 PAINT BHONDHO KORO
-0.3010 PAINT CLOSE KORO
-0.3010 PAINT KULO </s>
-0.3010 PAINT OPEN KORO
-0.3010 PLAYER BHONDHO KORO
-0.3010 PLAYER CLOSE KORO
-0.3010 PLAYER KULO </s>
-0.3010 PLAYER OPEN KORO
-0.3010 POWERPOINT BHONDHO KORO
-0.3010 POWERPOINT CLOSE KORO
-0.3010 POWERPOINT KULO </s>
-0.3010 POWERPOINT OPEN KORO
-0.7782 SNIPPING TOOL </s>
-1.0792 SNIPPING TOOL BHONDHO
-1.0792 SNIPPING TOOL CLOSE
-1.0792 SNIPPING TOOL KULO
-1.0792 SNIPPING TOOL OPEN
-0.3010 TA KI </s>
-0.3010 THE DATE </s>
-0.3010 THE TIME </s>
-0.3010 TIME TA KI
-0.3010 TOOL BHONDHO KORO
-0.3010 TOOL CLOSE KORO
-0.3010 TOOL KULO </s>
-0.3010 TOOL OPEN KORO
-0.3010 WHAT IS THE
-0.3010 WINDOWS MEDIA PLAYER
-0.3010 WORD BHONDHO KORO
-0.3010 WORD CLOSE KORO
-0.3010 WORD KULO </s>
-0.3010 WORD OPEN KORO
-0.3010 WORDPAD BHONDHO KORO
-0.3010 WORDPAD CLOSE KORO
-0.3010 WORDPAD KULO </s>
-0.3010 WORDPAD OPEN KORO

\end\